{"sizes":[3,7,2],"layers":[{"r":{},"g":{},"b":{}},{"0":{"bias":0.4471403956413269,"weights":{"r":3.2773377895355225,"g":-4.294642448425293,"b":1.4765255451202393}},"1":{"bias":0.3377113342285156,"weights":{"r":-0.28785440325737,"g":0.6814477443695068,"b":-0.1733064353466034}},"2":{"bias":-0.07704418152570724,"weights":{"r":1.064850926399231,"g":-1.9491395950317383,"b":0.31865188479423523}},"3":{"bias":-0.06756311655044556,"weights":{"r":1.309722661972046,"g":-2.067279577255249,"b":0.579422652721405}},"4":{"bias":0.191542387008667,"weights":{"r":1.7828670740127563,"g":-2.6785264015197754,"b":0.6876959800720215}},"5":{"bias":-0.05705687403678894,"weights":{"r":1.6913057565689087,"g":-2.36181902885437,"b":0.7731099128723145}},"6":{"bias":0.2567049562931061,"weights":{"r":-0.992152988910675,"g":1.4557585716247559,"b":-0.19692473113536835}}},{"black":{"bias":1.8992419242858887,"weights":{"0":-3.907341718673706,"1":1.0566320419311523,"2":-1.3378510475158691,"3":-1.2389750480651855,"4":-1.832797884941101,"5":-1.9202451705932617,"6":1.975658655166626}},"white":{"bias":-2.0785093307495117,"weights":{"0":3.8460452556610107,"1":-1.0570977926254272,"2":1.1215564012527466,"3":1.5074050426483154,"4":2.15132999420166,"5":1.649767518043518,"6":-1.736785650253296}}}],"outputLookup":true,"inputLookup":true,"activation":"sigmoid"}